<?xml version="1.0"?>
<opencv_storage>
<cascade>
  <stageType>BOOST</stageType>
  <featureType>HAAR</featureType>
  <height>20</height>
  <width>34</width>
  <stageParams>
    <boostType>GAB</boostType>
    <minHitRate>9.9500000476837158e-01</minHitRate>
    <maxFalseAlarm>5.0000000000000000e-01</maxFalseAlarm>
    <weightTrimRate>9.4999999999999996e-01</weightTrimRate>
    <maxDepth>1</maxDepth>
    <maxWeakCount>100</maxWeakCount></stageParams>
  <featureParams>
    <maxCatCount>0</maxCatCount>
    <featSize>1</featSize>
    <mode>BASIC</mode></featureParams>
  <stageNum>5</stageNum>
  <stages>
    <!-- stage 0 -->
    <_>
      <maxWeakCount>2</maxWeakCount>
      <stageThreshold>-2.7551390230655670e-02</stageThreshold>
      <weakClassifiers>
        <_>
          <internalNodes>
            0 -1 7 1.5808227658271790e-01</internalNodes>
          <leafValues>
            -9.0382516384124756e-01 9.6750700473785400e-01</leafValues></_>
        <_>
          <internalNodes>
            0 -1 6 -3.2968961168080568e-03</internalNodes>
          <leafValues>
            8.7627375125885010e-01 -9.2657649517059326e-01</leafValues></_></weakClassifiers></_>
    <!-- stage 1 -->
    <_>
      <maxWeakCount>2</maxWeakCount>
      <stageThreshold>8.9885946363210678e-03</stageThreshold>
      <weakClassifiers>
        <_>
          <internalNodes>
            0 -1 2 2.8282767534255981e-01</internalNodes>
          <leafValues>
            -7.3757457733154297e-01 9.6930342912673950e-01</leafValues></_>
        <_>
          <internalNodes>
            0 -1 5 -1.1098934337496758e-02</internalNodes>
          <leafValues>
            8.1276100873947144e-01 -9.6031481027603149e-01</leafValues></_></weakClassifiers></_>
    <!-- stage 2 -->
    <_>
      <maxWeakCount>1</maxWeakCount>
      <stageThreshold>8.3614951372146606e-01</stageThreshold>
      <weakClassifiers>
        <_>
          <internalNodes>
            0 -1 0 4.7882802784442902e-02</internalNodes>
          <leafValues>
            -9.8125839233398438e-01 8.3614951372146606e-01</leafValues></_></weakClassifiers></_>
    <!-- stage 3 -->
    <_>
      <maxWeakCount>2</maxWeakCount>
      <stageThreshold>-8.4843039512634277e-02</stageThreshold>
      <weakClassifiers>
        <_>
          <internalNodes>
            0 -1 1 2.7948793023824692e-02</internalNodes>
          <leafValues>
            -9.2387545108795166e-01 9.2798691987991333e-01</leafValues></_>
        <_>
          <internalNodes>
            0 -1 3 5.4725022055208683e-03</internalNodes>
          <leafValues>
            -8.7442028522491455e-01 8.3903241157531738e-01</leafValues></_></weakClassifiers></_>
    <!-- stage 4 -->
    <_>
      <maxWeakCount>2</maxWeakCount>
      <stageThreshold>1.1441505700349808e-01</stageThreshold>
      <weakClassifiers>
        <_>
          <internalNodes>
            0 -1 4 1.9628670997917652e-03</internalNodes>
          <leafValues>
            -8.4864866733551025e-01 9.4929575920104980e-01</leafValues></_>
        <_>
          <internalNodes>
            0 -1 8 -1.0104157030582428e-02</internalNodes>
          <leafValues>
            9.6306371688842773e-01 -7.7358490228652954e-01</leafValues></_></weakClassifiers></_></stages>
  <features>
    <_>
      <rects>
        <_>
          4 8 22 5 -1.</_>
        <_>
          15 8 11 5 2.</_></rects>
      <tilted>0</tilted></_>
    <_>
      <rects>
        <_>
          4 10 15 6 -1.</_>
        <_>
          9 10 5 6 3.</_></rects>
      <tilted>0</tilted></_>
    <_>
      <rects>
        <_>
          7 2 22 18 -1.</_>
        <_>
          7 8 22 6 3.</_></rects>
      <tilted>0</tilted></_>
    <_>
      <rects>
        <_>
          8 8 10 9 -1.</_>
        <_>
          8 11 10 3 3.</_></rects>
      <tilted>0</tilted></_>
    <_>
      <rects>
        <_>
          9 9 4 3 -1.</_>
        <_>
          9 10 4 1 3.</_></rects>
      <tilted>0</tilted></_>
    <_>
      <rects>
        <_>
          10 6 8 6 -1.</_>
        <_>
          10 6 4 3 2.</_>
        <_>
          14 9 4 3 2.</_></rects>
      <tilted>0</tilted></_>
    <_>
      <rects>
        <_>
          12 12 6 2 -1.</_>
        <_>
          12 12 3 1 2.</_>
        <_>
          15 13 3 1 2.</_></rects>
      <tilted>0</tilted></_>
    <_>
      <rects>
        <_>
          16 1 10 18 -1.</_>
        <_>
          16 7 10 6 3.</_></rects>
      <tilted>0</tilted></_>
    <_>
      <rects>
        <_>
          26 9 4 6 -1.</_>
        <_>
          28 9 2 6 2.</_></rects>
      <tilted>0</tilted></_></features></cascade>
</opencv_storage>
