<?xml version="1.0"?>
<opencv_storage>
<cascade>
  <stageType>BOOST</stageType>
  <featureType>HAAR</featureType>
  <height>20</height>
  <width>20</width>
  <stageParams>
    <boostType>GAB</boostType>
    <minHitRate>9.9500000476837158e-01</minHitRate>
    <maxFalseAlarm>5.0000000000000000e-01</maxFalseAlarm>
    <weightTrimRate>9.4999999999999996e-01</weightTrimRate>
    <maxDepth>1</maxDepth>
    <maxWeakCount>100</maxWeakCount></stageParams>
  <featureParams>
    <maxCatCount>0</maxCatCount>
    <featSize>1</featSize>
    <mode>BASIC</mode></featureParams>
  <stageNum>6</stageNum>
  <stages>
    <!-- stage 0 -->
    <_>
      <maxWeakCount>2</maxWeakCount>
      <stageThreshold>-4.6494528651237488e-02</stageThreshold>
      <weakClassifiers>
        <_>
          <internalNodes>
            0 -1 2 1.7213448882102966e-01</internalNodes>
          <leafValues>
            -9.1115927696228027e-01 9.7974115610122681e-01</leafValues></_>
        <_>
          <internalNodes>
            0 -1 8 -7.2218202985823154e-03</internalNodes>
          <leafValues>
            8.6466473340988159e-01 -9.4618999958038330e-01</leafValues></_></weakClassifiers></_>
    <!-- stage 1 -->
    <_>
      <maxWeakCount>2</maxWeakCount>
      <stageThreshold>-2.2217595949769020e-02</stageThreshold>
      <weakClassifiers>
        <_>
          <internalNodes>
            0 -1 5 2.5982826948165894e-01</internalNodes>
          <leafValues>
            -8.4761905670166016e-01 9.6923077106475830e-01</leafValues></_>
        <_>
          <internalNodes>
            0 -1 0 7.1746587753295898e-02</internalNodes>
          <leafValues>
            -8.8957071304321289e-01 8.2540142536163330e-01</leafValues></_></weakClassifiers></_>
    <!-- stage 2 -->
    <_>
      <maxWeakCount>2</maxWeakCount>
      <stageThreshold>-4.5251306146383286e-02</stageThreshold>
      <weakClassifiers>
        <_>
          <internalNodes>
            0 -1 4 3.9544945955276489e-01</internalNodes>
          <leafValues>
            -6.8282830715179443e-01 9.2163741588592529e-01</leafValues></_>
        <_>
          <internalNodes>
            0 -1 3 -1.9131244625896215e-03</internalNodes>
          <leafValues>
            7.4261492490768433e-01 -9.6688872575759888e-01</leafValues></_></weakClassifiers></_>
    <!-- stage 3 -->
    <_>
      <maxWeakCount>2</maxWeakCount>
      <stageThreshold>-7.7672041952610016e-02</stageThreshold>
      <weakClassifiers>
        <_>
          <internalNodes>
            0 -1 6 1.2019931338727474e-02</internalNodes>
          <leafValues>
            -9.1902834177017212e-01 8.0704438686370850e-01</leafValues></_>
        <_>
          <internalNodes>
            0 -1 10 1.8689346034079790e-03</internalNodes>
          <leafValues>
            -8.4427011013031006e-01 8.4135627746582031e-01</leafValues></_></weakClassifiers></_>
    <!-- stage 4 -->
    <_>
      <maxWeakCount>2</maxWeakCount>
      <stageThreshold>-1.8333616852760315e-01</stageThreshold>
      <weakClassifiers>
        <_>
          <internalNodes>
            0 -1 11 -2.0057177171111107e-03</internalNodes>
          <leafValues>
            8.0932855606079102e-01 -9.0654206275939941e-01</leafValues></_>
        <_>
          <internalNodes>
            0 -1 1 1.2568024918437004e-02</internalNodes>
          <leafValues>
            -9.3120586872100830e-01 7.2320586442947388e-01</leafValues></_></weakClassifiers></_>
    <!-- stage 5 -->
    <_>
      <maxWeakCount>2</maxWeakCount>
      <stageThreshold>-1.2657910585403442e-01</stageThreshold>
      <weakClassifiers>
        <_>
          <internalNodes>
            0 -1 7 -1.5416501555591822e-03</internalNodes>
          <leafValues>
            8.5324949026107788e-01 -9.1919189691543579e-01</leafValues></_>
        <_>
          <internalNodes>
            0 -1 9 5.4850205779075623e-03</internalNodes>
          <leafValues>
            -9.7982859611511230e-01 8.0755782127380371e-01</leafValues></_></weakClassifiers></_></stages>
  <features>
    <_>
      <rects>
        <_>
          0 8 14 5 -1.</_>
        <_>
          7 8 7 5 2.</_></rects>
      <tilted>0</tilted></_>
    <_>
      <rects>
        <_>
          1 11 8 1 -1.</_>
        <_>
          5 11 4 1 2.</_></rects>
      <tilted>0</tilted></_>
    <_>
      <rects>
        <_>
          5 6 12 12 -1.</_>
        <_>
          5 10 12 4 3.</_></rects>
      <tilted>0</tilted></_>
    <_>
      <rects>
        <_>
          5 9 6 2 -1.</_>
        <_>
          5 9 3 1 2.</_>
        <_>
          8 10 3 1 2.</_></rects>
      <tilted>0</tilted></_>
    <_>
      <rects>
        <_>
          6 2 11 18 -1.</_>
        <_>
          6 8 11 6 3.</_></rects>
      <tilted>0</tilted></_>
    <_>
      <rects>
        <_>
          6 4 10 15 -1.</_>
        <_>
          6 9 10 5 3.</_></rects>
      <tilted>0</tilted></_>
    <_>
      <rects>
        <_>
          6 10 3 6 -1.</_>
        <_>
          6 12 3 2 3.</_></rects>
      <tilted>0</tilted></_>
    <_>
      <rects>
        <_>
          9 7 4 2 -1.</_>
        <_>
          9 7 2 1 2.</_>
        <_>
          11 8 2 1 2.</_></rects>
      <tilted>0</tilted></_>
    <_>
      <rects>
        <_>
          10 7 3 3 -1.</_>
        <_>
          11 7 1 3 3.</_></rects>
      <tilted>0</tilted></_>
    <_>
      <rects>
        <_>
          10 7 4 6 -1.</_>
        <_>
          12 7 2 6 2.</_></rects>
      <tilted>0</tilted></_>
    <_>
      <rects>
        <_>
          11 6 2 2 -1.</_>
        <_>
          11 6 1 1 2.</_>
        <_>
          12 7 1 1 2.</_></rects>
      <tilted>0</tilted></_>
    <_>
      <rects>
        <_>
          12 13 3 2 -1.</_>
        <_>
          13 13 1 2 3.</_></rects>
      <tilted>0</tilted></_></features></cascade>
</opencv_storage>
